<neuralNetwork>
    <neuron name = "0" type = "sensor" linkName = "0" />
    <neuron name = "1" type = "sensor" linkName = "1" />
    <neuron name = "2" type = "hidden" />
    <neuron name = "3" type = "hidden" />
    <neuron name = "4" type = "hidden" />
    <neuron name = "5" type = "hidden" />
    <neuron name = "6" type = "hidden" />
    <neuron name = "7" type = "hidden" />
    <neuron name = "8" type = "motor"  jointName = "0_1" />
    <synapse sourceNeuronName = "0" targetNeuronName = "2" weight = "0.0015070788749280695" />
    <synapse sourceNeuronName = "0" targetNeuronName = "3" weight = "0.8192120980573643" />
    <synapse sourceNeuronName = "0" targetNeuronName = "4" weight = "-0.9755963424654631" />
    <synapse sourceNeuronName = "0" targetNeuronName = "5" weight = "-20.035047135836965" />
    <synapse sourceNeuronName = "0" targetNeuronName = "6" weight = "10.825400098016004" />
    <synapse sourceNeuronName = "0" targetNeuronName = "7" weight = "0.18858675846508863" />
    <synapse sourceNeuronName = "1" targetNeuronName = "2" weight = "-0.0798601927170357" />
    <synapse sourceNeuronName = "1" targetNeuronName = "3" weight = "2.431982404373142" />
    <synapse sourceNeuronName = "1" targetNeuronName = "4" weight = "1.042613189649899" />
    <synapse sourceNeuronName = "1" targetNeuronName = "5" weight = "3.189162955168344" />
    <synapse sourceNeuronName = "1" targetNeuronName = "6" weight = "-8.553537879664994" />
    <synapse sourceNeuronName = "1" targetNeuronName = "7" weight = "-0.2157438018747646" />
    <synapse sourceNeuronName = "2" targetNeuronName = "8" weight = "3.69597726586378" />
    <synapse sourceNeuronName = "3" targetNeuronName = "8" weight = "-3.5639297565624855" />
    <synapse sourceNeuronName = "4" targetNeuronName = "8" weight = "1.9576427100615665" />
    <synapse sourceNeuronName = "5" targetNeuronName = "8" weight = "-0.02065777996825284" />
    <synapse sourceNeuronName = "6" targetNeuronName = "8" weight = "-0.0630213676213721" />
    <synapse sourceNeuronName = "7" targetNeuronName = "8" weight = "1.3255410277698552" />
</neuralNetwork>